{"learner": {"attributes": {}, "feature_names": [], "feature_types": [], "gradient_booster": {"model": {"gbtree_model_param": {"num_parallel_tree": "1", "num_trees": "15"}, "iteration_indptr": [0, 1, 2, 3, 4, 5, 6, 7, 8, 9, 10, 11, 12, 13, 14, 15], "tree_info": [0, 0, 0, 0, 0, 0, 0, 0, 0, 0, 0, 0, 0, 0, 0], "trees": [{"base_weights": [-0.0033550973, -0.17075084, 0.6474722, -1.4158528, 1.260609, -0.16806172, -0.044710226, 0.16151266, -0.11184987], "categories": [], "categories_nodes": [], "categories_segments": [], "categories_sizes": [], "default_left": [0, 0, 0, 0, 0, 0, 0, 0, 0], "id": 0, "left_children": [1, -1, 3, 5, 7, -1, -1, -1, -1], "loss_changes": [1870.6222, 0.0, 1545.8271, 71.08313, 795.8362, 0.0, 0.0, 0.0, 0.0], "parents": [2147483647, 0, 0, 2, 2, 3, 3, 4, 4], "right_children": [2, -1, 4, 6, 8, -1, -1, -1, -1], "split_conditions": [57.0, -0.17075084, 40889.0, 37608.0, 2057460.0, -0.16806172, -0.044710226, 0.16151266, -0.11184987], "split_indices": [19, 0, 0, 0, 2, 0, 0, 0, 0], "split_type": [0, 0, 0, 0, 0, 0, 0, 0, 0], "sum_hessian": [1684.6014, 465.11127, 1219.4901, 279.06677, 940.4234, 218.59015, 60.47661, 818.7416, 121.681854], "tree_param": {"num_deleted": "0", "num_feature": "20", "num_nodes": "9", "size_leaf_vector": "1"}}, {"base_weights": [-0.047571525, -0.14450184, 0.8176201, 2.5353215, -0.114034295, -0.061123025, 0.26789734, -0.123271875, 0.068774946], "categories": [], "categories_nodes": [], "categories_segments": [], "categories_sizes": [], "default_left": [0, 0, 0, 0, 0, 0, 0, 0, 0], "id": 1, "left_children": [1, -1, 3, 5, 7, -1, -1, -1, -1], "loss_changes": [1793.5681, 0.0, 1466.5443, 147.29272, 534.5246, 0.0, 0.0, 0.0, 0.0], "parents": [2147483647, 0, 0, 2, 2, 3, 3, 4, 4], "right_children": [2, -1, 4, 6, 8, -1, -1, -1, -1], "split_conditions": [57.0, -0.14450184, 62.0, 40744.0, 41710.0, -0.061123025, 0.26789734, -0.123271875, 0.068774946], "split_indices": [19, 0, 19, 0, 0, 0, 0, 0, 0], "split_type": [0, 0, 0, 0, 0, 0, 0, 0, 0], "sum_hessian": [1481.4639, 566.22845, 915.23535, 321.24014, 593.99524, 13.883384, 307.35675, 247.765, 346.23022], "tree_param": {"num_deleted": "0", "num_feature": "20", "num_nodes": "9", "size_leaf_vector": "1"}}, {"base_weights": [-1.1005875, -1.1139293, 0.29111153, -1.1203985, -0.7771148, -0.74593776, 1.9011005, -0.11217745, -0.01008077, -0.105525754, 0.03288207, -0.01008077, -0.08787846, 0.37789786, -0.063729264], "categories": [], "categories_nodes": [], "categories_segments": [], "categories_sizes": [], "default_left": [0, 0, 0, 0, 0, 0, 0, 0, 0, 0, 0, 0, 0, 0, 0], "id": 2, "left_children": [1, 3, 5, 7, 9, 11, 13, -1, -1, -1, -1, -1, -1, -1, -1], "loss_changes": [14.019409, 0.7216797, 14.435606, 0.88964844, 5.5873175, 0.37937617, 18.311918, 0.0, 0.0, 0.0, 0.0, 0.0, 0.0, 0.0, 0.0], "parents": [2147483647, 0, 0, 1, 1, 2, 2, 3, 3, 4, 4, 5, 5, 6, 6], "right_children": [2, 4, 6, 8, 10, 12, 14, -1, -1, -1, -1, -1, -1, -1, -1], "split_conditions": [29200.0, 1185.1515, 56635.0, 1699.276, 458.0, 20207.0, 58288.0, -0.11217745, -0.01008077, -0.105525754, 0.03288207, -0.01008077, -0.08787846, 0.37789786, -0.063729264], "split_indices": [19, 5, 0, 17, 1, 0, 0, 0, 0, 0, 0, 0, 0, 0, 0], "split_type": [0, 0, 0, 0, 0, 0, 0, 0, 0, 0, 0, 0, 0, 0, 0], "sum_hessian": [736.58185, 729.7852, 6.7966027, 713.7495, 16.035734, 4.4602704, 2.336332, 712.6875, 1.0619692, 12.849827, 3.1859076, 1.0619692, 3.3983014, 1.0619692, 1.274363], "tree_param": {"num_deleted": "0", "num_feature": "20", "num_nodes": "15", "size_leaf_vector": "1"}}, {"base_weights": [-0.4599093, -1.0029589, 4.4864354, -1.1707978, 1.7954923, -0.9536575, 5.5332894, 0.07162281, -0.1182573, -0.10117803, 0.4722294, -0.033958215, -0.10482681, 0.57375187, -0.08532908], "categories": [], "categories_nodes": [], "categories_segments": [], "categories_sizes": [], "default_left": [0, 0, 0, 0, 0, 0, 0, 0, 0, 0, 0, 0, 0, 0, 0], "id": 3, "left_children": [1, 3, 5, 7, 9, 11, 13, -1, -1, -1, -1, -1, -1, -1, -1], "loss_changes": [2652.2312, 419.6631, 561.65576, 19.496704, 421.32178, 0.6095629, 111.951416, 0.0, 0.0, 0.0, 0.0, 0.0, 0.0, 0.0, 0.0], "parents": [2147483647, 0, 0, 1, 1, 2, 2, 3, 3, 4, 4, 5, 5, 6, 6], "right_children": [2, 4, 6, 8, 10, 12, 14, -1, -1, -1, -1, -1, -1, -1, -1], "split_conditions": [29411.766, 92.84189, 37240.0, 105.0, 2.0, 443.0, 229.0, 0.07162281, -0.1182573, -0.10117803, 0.4722294, -0.033958215, -0.10482681, 0.57375187, -0.08532908], "split_indices": [6, 15, 0, 9, 18, 0, 19, 0, 0, 0, 0, 0, 0, 0, 0], "split_type": [0, 0, 0, 0, 0, 0, 0, 0, 0, 0, 0, 0, 0, 0, 0], "sum_hessian": [984.712, 888.0156, 96.6963, 838.3186, 49.69707, 15.61908, 81.07722, 4.8277154, 833.49084, 25.700485, 23.996586, 2.697841, 12.921238, 78.66336, 2.4138577], "tree_param": {"num_deleted": "0", "num_feature": "20", "num_nodes": "15", "size_leaf_vector": "1"}}, {"base_weights": [-2.338606e-06, 1.3932586, -1.817299, -1.6283644, 1.9172914, -1.888462, 1.1944132, -0.18766929, -0.06386196, -0.10630602, 0.20159571, -0.19543387, -0.13937129, 0.15901212, -0.13141023], "categories": [], "categories_nodes": [], "categories_segments": [], "categories_sizes": [], "default_left": [0, 0, 0, 0, 0, 0, 0, 0, 0, 0, 0, 0, 0, 0, 0], "id": 4, "left_children": [1, 3, 5, 7, 9, 11, 13, -1, -1, -1, -1, -1, -1, -1, -1], "loss_changes": [4393.9326, 1558.5122, 163.65967, 34.6167, 248.43823, 21.267334, 19.953518, 0.0, 0.0, 0.0, 0.0, 0.0, 0.0, 0.0, 0.0], "parents": [2147483647, 0, 0, 1, 1, 2, 2, 3, 3, 4, 4, 5, 5, 6, 6], "right_children": [2, 4, 6, 8, 10, 12, 14, -1, -1, -1, -1, -1, -1, -1, -1], "split_conditions": [2676.5, 47206.0, 63186.0, 39374.0, 1271.0, 9000.0, 65432.0, -0.18766929, -0.06386196, -0.10630602, 0.20159571, -0.19543387, -0.13937129, 0.15901212, -0.13141023], "split_indices": [7, 0, 0, 0, 1, 1, 0, 0, 0, 0, 0, 0, 0, 0, 0], "split_type": [0, 0, 0, 0, 0, 0, 0, 0, 0, 0, 0, 0, 0, 0, 0], "sum_hessian": [1733.3822, 981.2918, 752.0904, 144.7193, 836.5725, 735.09406, 16.996393, 114.9756, 29.743689, 26.494379, 810.0781, 646.1129, 88.98112, 14.996818, 1.9995757], "tree_param": {"num_deleted": "0", "num_feature": "20", "num_nodes": "15", "size_leaf_vector": "1"}}, {"base_weights": [0.19739743, -0.13384801, 0.6767436, -1.0441314, 1.1121315, -0.13412999, -0.009213901, 0.13272698, -0.13033421], "categories": [], "categories_nodes": [], "categories_segments": [], "categories_sizes": [], "default_left": [0, 0, 0, 0, 0, 0, 0, 0, 0], "id": 5, "left_children": [1, -1, 3, 5, 7, -1, -1, -1, -1], "loss_changes": [1114.6218, 0.0, 865.48755, 65.91887, 480.41296, 0.0, 0.0, 0.0, 0.0], "parents": [2147483647, 0, 0, 2, 2, 3, 3, 4, 4], "right_children": [2, -1, 4, 6, 8, -1, -1, -1, -1], "split_conditions": [57.0, -0.13384801, 40808.0, 37668.0, 11812575.0, -0.13412999, -0.009213901, 0.13272698, -0.13033421], "split_indices": [19, 0, 0, 0, 2, 0, 0, 0, 0], "split_type": [0, 0, 0, 0, 0, 0, 0, 0, 0], "sum_hessian": [1511.7551, 359.16354, 1152.5916, 232.44644, 920.1451, 176.83708, 55.609364, 845.3069, 74.83819], "tree_param": {"num_deleted": "0", "num_feature": "20", "num_nodes": "9", "size_leaf_vector": "1"}}, {"base_weights": [0.46556702, 1.4724178, -1.1825703, -0.86850184, 1.8516053, -1.2549809, 1.6704402, -0.13106608, -0.012015632, 0.19142321, -0.15418163, -0.13385598, -0.049928304, 0.21283863, -0.10111933], "categories": [], "categories_nodes": [], "categories_segments": [], "categories_sizes": [], "default_left": [0, 0, 0, 0, 0, 0, 0, 0, 0, 0, 0, 0, 0, 0, 0], "id": 6, "left_children": [1, 3, 5, 7, 9, 11, 13, -1, -1, -1, -1, -1, -1, -1, -1], "loss_changes": [2531.01, 841.86475, 121.62189, 43.73143, 176.14868, 35.0058, 20.265652, 0.0, 0.0, 0.0, 0.0, 0.0, 0.0, 0.0, 0.0], "parents": [2147483647, 0, 0, 1, 1, 2, 2, 3, 3, 4, 4, 5, 5, 6, 6], "right_children": [2, 4, 6, 8, 10, 12, 14, -1, -1, -1, -1, -1, -1, -1, -1], "split_conditions": [3639.0, 49918.0, 60988.0, 46.0, 5.0, 9002.0, 3432039.2, -0.13106608, -0.012015632, 0.19142321, -0.15418163, -0.13385598, -0.049928304, 0.21283863, -0.10111933], "split_indices": [7, 0, 0, 13, 4, 1, 8, 0, 0, 0, 0, 0, 0, 0, 0], "split_type": [0, 0, 0, 0, 0, 0, 0, 0, 0, 0, 0, 0, 0, 0, 0], "sum_hessian": [1523.1805, 945.6112, 577.56934, 131.6399, 813.9714, 563.8195, 13.749835, 82.27587, 49.364014, 799.6494, 14.321919, 506.97745, 56.842087, 11.92047, 1.829365], "tree_param": {"num_deleted": "0", "num_feature": "20", "num_nodes": "15", "size_leaf_vector": "1"}}, {"base_weights": [-0.24677949, -0.13550454, 0.33465058, -1.15166, 0.8345152, -0.13421348, -0.06569543, 0.11292886, -0.13574289], "categories": [], "categories_nodes": [], "categories_segments": [], "categories_sizes": [], "default_left": [0, 0, 0, 0, 0, 0, 0, 0, 0], "id": 7, "left_children": [1, -1, 3, 5, 7, -1, -1, -1, -1], "loss_changes": [954.9606, 0.0, 723.38715, 22.217407, 472.0627, 0.0, 0.0, 0.0, 0.0], "parents": [2147483647, 0, 0, 2, 2, 3, 3, 4, 4], "right_children": [2, -1, 4, 6, 8, -1, -1, -1, -1], "split_conditions": [57.0, -0.13550454, 40900.0, 37492.0, 5010244.0, -0.13421348, -0.06569543, 0.11292886, -0.13574289], "split_indices": [19, 0, 0, 0, 12, 0, 0, 0, 0], "split_type": [0, 0, 0, 0, 0, 0, 0, 0, 0], "sum_hessian": [1480.2819, 508.9121, 971.36975, 244.13838, 727.2314, 175.03307, 69.105316, 641.4533, 85.77805], "tree_param": {"num_deleted": "0", "num_feature": "20", "num_nodes": "9", "size_leaf_vector": "1"}}, {"base_weights": [-1.4391445, -1.6062129, -1.348816, -0.13704596, -1.7471379, -0.13565843, -0.8056566, -0.19169848, -0.15886337, 0.05895191, -0.104438186], "categories": [], "categories_nodes": [], "categories_segments": [], "categories_sizes": [], "default_left": [0, 0, 0, 0, 0, 0, 0, 0, 0, 0, 0], "id": 8, "left_children": [1, 3, 5, -1, 7, -1, 9, -1, -1, -1, -1], "loss_changes": [19.098389, 13.860596, 2.7926025, 0.0, 5.100464, 0.0, 5.760392, 0.0, 0.0, 0.0, 0.0], "parents": [2147483647, 0, 0, 1, 1, 2, 2, 4, 4, 6, 6], "right_children": [2, 4, 6, -1, 8, -1, 10, -1, -1, -1, -1], "split_conditions": [4119.0, 39628.0, 29200.0, -0.13704596, 56.0, -0.13565843, 40.0, -0.19169848, -0.15886337, 0.05895191, -0.104438186], "split_indices": [7, 0, 19, 0, 10, 0, 13, 0, 0, 0, 0], "split_type": [0, 0, 0, 0, 0, 0, 0, 0, 0, 0, 0], "sum_hessian": [1408.1228, 488.2641, 919.8587, 186.68462, 301.57947, 905.41205, 14.446627, 140.2254, 161.35408, 1.8960642, 12.550563], "tree_param": {"num_deleted": "0", "num_feature": "20", "num_nodes": "11", "size_leaf_vector": "1"}}, {"base_weights": [-0.95518917, 1.5058584, -1.285229, 1.8946526, -0.13306816, -1.3887837, 0.18104443, -0.10391247, 0.20295821, -0.17016737, -0.13632606, -0.12687832, 0.14533815], "categories": [], "categories_nodes": [], "categories_segments": [], "categories_sizes": [], "default_left": [0, 0, 0, 0, 0, 0, 0, 0, 0, 0, 0, 0, 0], "id": 9, "left_children": [1, 3, 5, 7, -1, 9, 11, -1, -1, -1, -1, -1, -1], "loss_changes": [1158.7104, 188.75125, 191.00854, 61.060364, 0.0, 7.052002, 156.34953, 0.0, 0.0, 0.0, 0.0, 0.0, 0.0], "parents": [2147483647, 0, 0, 1, 1, 2, 2, 3, 3, 5, 5, 6, 6], "right_children": [2, 4, 6, 8, -1, 10, 12, -1, -1, -1, -1, -1, -1], "split_conditions": [76.0, 229.0, 80.05764, 5353.0, -0.13306816, 319.0, 2.0, -0.10391247, 0.20295821, -0.17016737, -0.13632606, -0.12687832, 0.14533815], "split_indices": [9, 19, 15, 0, 0, 9, 18, 0, 0, 0, 0, 0, 0], "split_type": [0, 0, 0, 0, 0, 0, 0, 0, 0, 0, 0, 0, 0], "sum_hessian": [1423.1724, 167.86563, 1255.3066, 147.9225, 19.943136, 1172.5488, 82.75783, 6.2094235, 141.71307, 83.48097, 1089.0679, 38.68223, 44.0756], "tree_param": {"num_deleted": "0", "num_feature": "20", "num_nodes": "13", "size_leaf_vector": "1"}}, {"base_weights": [-1.3294096, -1.1801625, -1.536598, -0.11913321, -0.61093456, -1.2691184, -1.7051326, -0.0935157, 0.12951465, -0.12735057, -0.036100034, -0.18177938, -0.13889678], "categories": [], "categories_nodes": [], "categories_segments": [], "categories_sizes": [], "default_left": [0, 0, 0, 0, 0, 0, 0, 0, 0, 0, 0, 0, 0], "id": 10, "left_children": [1, 3, 5, -1, 7, 9, 11, -1, -1, -1, -1, -1, -1], "loss_changes": [31.452515, 3.2754517, 17.993164, 0.0, 9.968143, 0.24447632, 7.142273, 0.0, 0.0, 0.0, 0.0, 0.0, 0.0], "parents": [2147483647, 0, 0, 1, 1, 2, 2, 4, 4, 5, 5, 6, 6], "right_children": [2, 4, 6, -1, 8, 10, 12, -1, -1, -1, -1, -1, -1], "split_conditions": [300.9329, 29200.0, 42186.0, -0.11913321, 31.0, 40762.0, 54169.0, -0.0935157, 0.12951465, -0.12735057, -0.036100034, -0.18177938, -0.13889678], "split_indices": [6, 19, 0, 0, 3, 0, 0, 0, 0, 0, 0, 0, 0], "split_type": [0, 0, 0, 0, 0, 0, 0, 0, 0, 0, 0, 0, 0], "sum_hessian": [1074.7964, 628.6488, 446.14758, 615.4788, 13.170001, 175.7488, 270.3988, 11.690791, 1.4792094, 174.50339, 1.2454046, 195.85791, 74.540886], "tree_param": {"num_deleted": "0", "num_feature": "20", "num_nodes": "13", "size_leaf_vector": "1"}}, {"base_weights": [0.5055459, 0.8894643, -1.2170552, -1.1678097, 1.2650304, -0.14680515, -0.11686274, -0.11913281, 0.016959114, 0.14309727, -0.11333831], "categories": [], "categories_nodes": [], "categories_segments": [], "categories_sizes": [], "default_left": [0, 0, 0, 0, 0, 0, 0, 0, 0, 0, 0], "id": 11, "left_children": [1, 3, 5, 7, 9, -1, -1, -1, -1, -1, -1], "loss_changes": [851.4198, 814.3152, 1.13797, 5.326584, 355.87952, 0.0, 0.0, 0.0, 0.0, 0.0, 0.0], "parents": [2147483647, 0, 0, 1, 1, 2, 2, 3, 3, 4, 4], "right_children": [2, 4, 6, 8, 10, -1, -1, -1, -1, -1, -1], "split_conditions": [23.0, 37394.0, 5099.0, 28960.0, 5018664.0, -0.14680515, -0.11686274, -0.11913281, 0.016959114, 0.14309727, -0.11333831], "split_indices": [4, 0, 2, 19, 12, 0, 0, 0, 0, 0, 0], "split_type": [0, 0, 0, 0, 0, 0, 0, 0, 0, 0, 0], "sum_hessian": [1284.7827, 1051.0233, 233.75932, 161.92451, 889.0988, 33.06623, 200.69308, 159.2336, 2.69092, 831.9415, 57.157303], "tree_param": {"num_deleted": "0", "num_feature": "20", "num_nodes": "11", "size_leaf_vector": "1"}}, {"base_weights": [0.7011228, -1.1098133, 1.4316654, -1.1593319, 0.30393943, 1.6793303, -0.9565284, 0.13416259, -0.12149634, 0.17406937, -0.1076824, -0.117071904, 0.17557707], "categories": [], "categories_nodes": [], "categories_segments": [], "categories_sizes": [], "default_left": [0, 0, 0, 0, 0, 0, 0, 0, 0, 0, 0, 0, 0], "id": 12, "left_children": [1, 3, 5, 7, -1, 9, 11, -1, -1, -1, -1, -1, -1], "loss_changes": [1701.1914, 79.51309, 543.3037, 52.581177, 0.0, 142.27612, 52.417923, 0.0, 0.0, 0.0, 0.0, 0.0, 0.0], "parents": [2147483647, 0, 0, 1, 1, 2, 2, 3, 3, 5, 5, 6, 6], "right_children": [2, 4, 6, 8, -1, 10, 12, -1, -1, -1, -1, -1, -1], "split_conditions": [1234.0, 63362.0, 9200.0, 25.0, 0.30393943, 24619716.0, 42038.0, 0.13416259, -0.12149634, 0.17406937, -0.1076824, -0.117071904, 0.17557707], "split_indices": [1, 0, 1, 2, 0, 2, 0, 0, 0, 0, 0, 0, 0], "split_type": [0, 0, 0, 0, 0, 0, 0, 0, 0, 0, 0, 0, 0], "sum_hessian": [1283.6912, 368.84506, 914.8461, 365.2071, 3.6379626, 829.1562, 85.68989, 7.4439163, 357.76318, 811.45825, 17.69797, 79.94499, 5.7448997], "tree_param": {"num_deleted": "0", "num_feature": "20", "num_nodes": "13", "size_leaf_vector": "1"}}, {"base_weights": [0.07001132, -0.119529866, 0.5780932, -0.9078184, 0.9781082, -0.11755071, -0.032182064, 0.0062494534, 0.15812472], "categories": [], "categories_nodes": [], "categories_segments": [], "categories_sizes": [], "default_left": [0, 0, 0, 0, 0, 0, 0, 0, 0], "id": 13, "left_children": [1, -1, 3, 5, 7, -1, -1, -1, -1], "loss_changes": [783.21545, 0.0, 517.50146, 28.621414, 378.34326, 0.0, 0.0, 0.0, 0.0], "parents": [2147483647, 0, 0, 2, 2, 3, 3, 4, 4], "right_children": [2, -1, 4, 6, 8, -1, -1, -1, -1], "split_conditions": [57.0, -0.119529866, 40744.0, 37585.0, 8662.0, -0.11755071, -0.032182064, 0.0062494534, 0.15812472], "split_indices": [19, 0, 0, 0, 1, 0, 0, 0, 0], "split_type": [0, 0, 0, 0, 0, 0, 0, 0, 0], "sum_hessian": [1216.215, 348.06158, 868.15344, 183.87068, 684.2828, 125.52419, 58.34649, 272.186, 412.09674], "tree_param": {"num_deleted": "0", "num_feature": "20", "num_nodes": "9", "size_leaf_vector": "1"}}, {"base_weights": [-0.7048006, 1.6757241, -1.1184635, 1.9729697, -1.2126448, -1.2446519, 0.39404804, -0.07314905, 0.20933647, -0.12656371, -0.047436595, -0.16842417, -0.12002152, -0.11584766, 0.15716527], "categories": [], "categories_nodes": [], "categories_segments": [], "categories_sizes": [], "default_left": [0, 0, 0, 0, 0, 0, 0, 0, 0, 0, 0, 0, 0, 0, 0], "id": 14, "left_children": [1, 3, 5, 7, 9, 11, 13, -1, -1, -1, -1, -1, -1, -1, -1], "loss_changes": [1067.1276, 140.23294, 176.50623, 49.052917, 0.009944916, 14.610474, 133.04422, 0.0, 0.0, 0.0, 0.0, 0.0, 0.0, 0.0, 0.0], "parents": [2147483647, 0, 0, 1, 1, 2, 2, 3, 3, 4, 4, 5, 5, 6, 6], "right_children": [2, 4, 6, 8, 10, 12, 14, -1, -1, -1, -1, -1, -1, -1, -1], "split_conditions": [74.0, 234.0, 74.25638, 5353.0, 1025.0, 313.0, 2.0, -0.07314905, 0.20933647, -0.12656371, -0.047436595, -0.16842417, -0.12002152, -0.11584766, 0.15716527], "split_indices": [7, 19, 15, 0, 19, 9, 18, 0, 0, 0, 0, 0, 0, 0, 0], "split_type": [0, 0, 0, 0, 0, 0, 0, 0, 0, 0, 0, 0, 0, 0, 0], "sum_hessian": [1080.7666, 159.54942, 921.21716, 144.94943, 14.599991, 850.44214, 70.77506, 5.9614067, 138.98804, 12.955742, 1.6442481, 74.68816, 775.75397, 30.53488, 40.240185], "tree_param": {"num_deleted": "0", "num_feature": "20", "num_nodes": "15", "size_leaf_vector": "1"}}]}, "name": "gbtree"}, "learner_model_param": {"base_score": "4.1560775E-1", "boost_from_average": "1", "num_class": "0", "num_feature": "20", "num_target": "1"}, "objective": {"name": "binary:logistic", "reg_loss_param": {"scale_pos_weight": "1"}}}, "version": [2, 1, 4]}