{"learner": {"attributes": {}, "feature_names": [], "feature_types": [], "gradient_booster": {"model": {"gbtree_model_param": {"num_parallel_tree": "1", "num_trees": "5"}, "iteration_indptr": [0, 1, 2, 3, 4, 5], "tree_info": [0, 0, 0, 0, 0], "trees": [{"base_weights": [-0.0042059165, -0.16900943, 0.7362155, -1.4147176, 1.2945045, 0.05460096, -0.15284877, -0.09841297, 0.16809794], "categories": [], "categories_nodes": [], "categories_segments": [], "categories_sizes": [], "default_left": [0, 0, 0, 0, 0, 0, 0, 0, 0], "id": 0, "left_children": [1, -1, 3, 5, 7, -1, -1, -1, -1], "loss_changes": [4188.232, 0.0, 2801.4072, 108.109375, 1632.1018, 0.0, 0.0, 0.0, 0.0], "parents": [2147483647, 0, 0, 2, 2, 3, 3, 4, 4], "right_children": [2, -1, 4, 6, 8, -1, -1, -1, -1], "split_conditions": [57.0, -0.16900943, 5.78955, 61.0, 40756.0, 0.05460096, -0.15284877, -0.09841297, 0.16809794], "split_indices": [19, 0, 15, 19, 0, 0, 0, 0, 0], "split_type": [0, 0, 0, 0, 0, 0, 0, 0, 0], "sum_hessian": [3353.2383, 1022.89484, 2330.3435, 479.89746, 1850.446, 26.11029, 453.78717, 268.114, 1582.332], "tree_param": {"num_deleted": "0", "num_feature": "20", "num_nodes": "9", "size_leaf_vector": "1"}}, {"base_weights": [-0.038333848, -0.146981, 0.87653553, -1.4403136, 1.7881883, -0.14613055, 0.053075798, -0.012869268, 0.258714], "categories": [], "categories_nodes": [], "categories_segments": [], "categories_sizes": [], "default_left": [0, 0, 0, 0, 0, 0, 0, 0, 0], "id": 1, "left_children": [1, -1, 3, 5, 7, -1, -1, -1, -1], "loss_changes": [3959.1362, 0.0, 3898.2515, 22.348145, 2028.0815, 0.0, 0.0, 0.0, 0.0], "parents": [2147483647, 0, 0, 2, 2, 3, 3, 4, 4], "right_children": [2, -1, 4, 6, 8, -1, -1, -1, -1], "split_conditions": [57.0, -0.146981, 37518.0, 28960.0, 8662.0, -0.14613055, 0.053075798, -0.012869268, 0.258714], "split_indices": [19, 0, 0, 19, 1, 0, 0, 0, 0], "split_type": [0, 0, 0, 0, 0, 0, 0, 0, 0], "sum_hessian": [3021.149, 1177.7471, 1843.4019, 520.3695, 1323.0323, 515.14185, 5.227655, 389.4603, 933.5721], "tree_param": {"num_deleted": "0", "num_feature": "20", "num_nodes": "9", "size_leaf_vector": "1"}}, {"base_weights": [-1.0695487, -1.0943083, 0.4094847, -0.11374694, -0.962324, -1.007749, 2.666762, 0.025147555, -0.10221273, -0.010780353, -0.10643299, 0.47493225, -0.08886487], "categories": [], "categories_nodes": [], "categories_segments": [], "categories_sizes": [], "default_left": [0, 0, 0, 0, 0, 0, 0, 0, 0, 0, 0, 0, 0], "id": 2, "left_children": [1, 3, 5, -1, 7, 9, 11, -1, -1, -1, -1, -1, -1], "loss_changes": [55.032227, 7.258301, 83.52576, 0.0, 26.957428, 0.7126446, 78.41509, 0.0, 0.0, 0.0, 0.0, 0.0, 0.0], "parents": [2147483647, 0, 0, 1, 1, 2, 2, 4, 4, 5, 5, 6, 6], "right_children": [2, 4, 6, -1, 8, 10, 12, -1, -1, -1, -1, -1, -1], "split_conditions": [28960.0, 235.0, 0.664498, -0.11374694, 239.0, 0.19993727, 2.0, 0.025147555, -0.10221273, -0.010780353, -0.10643299, 0.47493225, -0.08886487], "split_indices": [19, 19, 6, 0, 19, 6, 18, 0, 0, 0, 0, 0, 0], "split_type": [0, 0, 0, 0, 0, 0, 0, 0, 0, 0, 0, 0, 0], "sum_hessian": [1489.5471, 1465.278, 24.269169, 1098.4484, 366.82956, 15.24877, 9.020399, 17.074327, 349.75522, 1.0738571, 14.174912, 5.4766707, 3.543728], "tree_param": {"num_deleted": "0", "num_feature": "20", "num_nodes": "13", "size_leaf_vector": "1"}}, {"base_weights": [-0.38424492, -1.043972, 4.3781867, -1.1889386, 1.5824718, -1.0416974, 5.2069955, -0.0341484, -0.11939766, -0.09384688, 0.42468554, 0.015250484, -0.10950269, 0.54105276, -0.10647037], "categories": [], "categories_nodes": [], "categories_segments": [], "categories_sizes": [], "default_left": [0, 0, 0, 0, 0, 0, 0, 0, 0, 0, 0, 0, 0, 0, 0], "id": 3, "left_children": [1, 3, 5, 7, 9, 11, 13, -1, -1, -1, -1, -1, -1, -1, -1], "loss_changes": [6509.9287, 694.6111, 1137.9453, 6.956299, 646.09247, 2.3497314, 285.11328, 0.0, 0.0, 0.0, 0.0, 0.0, 0.0, 0.0, 0.0], "parents": [2147483647, 0, 0, 1, 1, 2, 2, 3, 3, 4, 4, 5, 5, 6, 6], "right_children": [2, 4, 6, 8, 10, 12, 14, -1, -1, -1, -1, -1, -1, -1, -1], "split_conditions": [24096.385, 92.16226, 37062.0, 131.0, 2.0, 68.0, 235.0, -0.0341484, -0.11939766, -0.09384688, 0.42468554, 0.015250484, -0.10950269, 0.54105276, -0.10647037], "split_indices": [16, 15, 0, 7, 18, 0, 19, 0, 0, 0, 0, 0, 0, 0, 0], "split_type": [0, 0, 0, 0, 0, 0, 0, 0, 0, 0, 0, 0, 0, 0, 0], "sum_hessian": [2069.514, 1818.397, 251.11693, 1723.7991, 94.597824, 33.273365, 217.84357, 10.593762, 1713.2053, 48.940197, 45.657623, 1.3428713, 31.930494, 211.12921, 6.7143564], "tree_param": {"num_deleted": "0", "num_feature": "20", "num_nodes": "15", "size_leaf_vector": "1"}}, {"base_weights": [-9.0215624e-05, 1.4310226, -1.8121159, -1.8237171, 1.9770298, -1.8356489, 0.3916309, -0.18338218, -0.05925862, -0.18660963, 0.21012011, -0.1888193, -0.14464782, 0.18733382, -0.1133693], "categories": [], "categories_nodes": [], "categories_segments": [], "categories_sizes": [], "default_left": [0, 0, 0, 0, 0, 0, 0, 0, 0, 0, 0, 0, 0, 0, 0], "id": 4, "left_children": [1, 3, 5, 7, 9, 11, 13, -1, -1, -1, -1, -1, -1, -1, -1], "loss_changes": [8973.5, 3439.4783, 79.90918, 2.375061, 794.2388, 28.16748, 40.45009, 0.0, 0.0, 0.0, 0.0, 0.0, 0.0, 0.0, 0.0], "parents": [2147483647, 0, 0, 1, 1, 2, 2, 3, 3, 4, 4, 5, 5, 6, 6], "right_children": [2, 4, 6, 8, 10, 12, 14, -1, -1, -1, -1, -1, -1, -1, -1], "split_conditions": [3520.0, 47288.0, 63863.0, 984.0, 3306.0, 9000.0, 443.0, -0.18338218, -0.05925862, -0.18660963, 0.21012011, -0.1888193, -0.14464782, 0.18733382, -0.1133693], "split_indices": [7, 0, 0, 10, 1, 1, 1, 0, 0, 0, 0, 0, 0, 0, 0], "split_type": [0, 0, 0, 0, 0, 0, 0, 0, 0, 0, 0, 0, 0, 0, 0], "sum_hessian": [3458.379, 1932.4034, 1525.9753, 277.26874, 1655.1348, 1510.0175, 15.957912, 274.52597, 2.7427661, 51.364532, 1603.7701, 1327.0001, 183.0173, 7.978956, 7.978956], "tree_param": {"num_deleted": "0", "num_feature": "20", "num_nodes": "15", "size_leaf_vector": "1"}}]}, "name": "gbtree"}, "learner_model_param": {"base_score": "4.092363E-1", "boost_from_average": "1", "num_class": "0", "num_feature": "20", "num_target": "1"}, "objective": {"name": "binary:logistic", "reg_loss_param": {"scale_pos_weight": "1"}}}, "version": [2, 1, 4]}