{"learner": {"attributes": {}, "feature_names": [], "feature_types": [], "gradient_booster": {"model": {"gbtree_model_param": {"num_parallel_tree": "1", "num_trees": "5"}, "iteration_indptr": [0, 1, 2, 3, 4, 5], "tree_info": [0, 0, 0, 0, 0], "trees": [{"base_weights": [-1.0720131, -1.0922602, 0.5500551, -1.1276615, -0.917009, -0.104387, 2.8377447, -0.1130093, -0.026879016, -0.102578364, 0.4051612, 0.5059976, -0.084690474], "categories": [], "categories_nodes": [], "categories_segments": [], "categories_sizes": [], "default_left": [0, 0, 0, 0, 0, 0, 0, 0, 0, 0, 0, 0, 0], "id": 0, "left_children": [1, 3, 5, 7, 9, -1, 11, -1, -1, -1, -1, -1, -1], "loss_changes": [49.51111, 8.093506, 72.33541, 2.2432861, 140.67635, 0.0, 70.45601, 0.0, 0.0, 0.0, 0.0, 0.0, 0.0], "parents": [2147483647, 0, 0, 1, 1, 2, 2, 3, 3, 4, 4, 6, 6], "right_children": [2, 4, 6, 8, 10, -1, 12, -1, -1, -1, -1, -1, -1], "split_conditions": [29200.0, 9000.0, 0.6548823, 15305643.0, 56570.0, -0.104387, 2.0, -0.1130093, -0.026879016, -0.102578364, 0.4051612, 0.5059976, -0.084690474], "split_indices": [19, 1, 6, 11, 0, 0, 18, 0, 0, 0, 0, 0, 0], "split_type": [0, 0, 0, 0, 0, 0, 0, 0, 0, 0, 0, 0, 0], "sum_hessian": [1488.2495, 1470.2244, 18.025082, 1218.6243, 251.6001, 10.9438, 7.081282, 1214.869, 3.7552254, 246.98654, 4.6135626, 4.184394, 2.896888], "tree_param": {"num_deleted": "0", "num_feature": "20", "num_nodes": "13", "size_leaf_vector": "1"}}, {"base_weights": [-0.38318592, 4.3368287, -1.036153, -1.052501, 5.222141, -1.1799252, 1.5310376, 0.035259698, -0.110403135, 0.5404906, -0.10480577, 0.19929804, -0.11879641, -0.098254494, 0.41947913], "categories": [], "categories_nodes": [], "categories_segments": [], "categories_sizes": [], "default_left": [0, 0, 0, 0, 0, 0, 0, 0, 0, 0, 0, 0, 0, 0, 0], "id": 1, "left_children": [1, 3, 5, 7, 9, 11, 13, -1, -1, -1, -1, -1, -1, -1, -1], "loss_changes": [6390.519, 1207.8589, 673.931, 3.0239716, 253.89941, 46.366943, 653.6648, 0.0, 0.0, 0.0, 0.0, 0.0, 0.0, 0.0, 0.0], "parents": [2147483647, 0, 0, 1, 1, 2, 2, 3, 3, 4, 4, 5, 5, 6, 6], "right_children": [2, 4, 6, 8, 10, 12, 14, -1, -1, -1, -1, -1, -1, -1, -1], "split_conditions": [70.0, 39410.0, 80.52549, 68.0, 229.0, 79.0, 2.0, 0.035259698, -0.110403135, 0.5404906, -0.10480577, 0.19929804, -0.11879641, -0.098254494, 0.41947913], "split_indices": [9, 0, 15, 0, 19, 2, 18, 0, 0, 0, 0, 0, 0, 0, 0], "split_type": [0, 0, 0, 0, 0, 0, 0, 0, 0, 0, 0, 0, 0, 0, 0], "sum_hessian": [2071.0298, 251.00224, 1820.0276, 35.38818, 215.61406, 1724.0166, 96.01097, 1.0452205, 34.34296, 209.64137, 5.9726887, 3.7329304, 1720.2837, 49.722633, 46.288338], "tree_param": {"num_deleted": "0", "num_feature": "20", "num_nodes": "15", "size_leaf_vector": "1"}}, {"base_weights": [-0.04032524, -0.76562434, 1.7780247, 0.6409577, -1.2028189, -1.3987855, 2.475725, -0.14532529, 0.18763575, -0.14540315, -0.0038843907, -0.1449994, 0.075954385, 0.013396411, 0.29531208], "categories": [], "categories_nodes": [], "categories_segments": [], "categories_sizes": [], "default_left": [0, 0, 0, 0, 0, 0, 0, 0, 0, 0, 0, 0, 0, 0, 0], "id": 2, "left_children": [1, 3, 5, 7, 9, 11, 13, -1, -1, -1, -1, -1, -1, -1, -1], "loss_changes": [3969.7107, 1323.9434, 1905.802, 1324.4055, 480.02026, 18.253998, 786.7334, 0.0, 0.0, 0.0, 0.0, 0.0, 0.0, 0.0, 0.0], "parents": [2147483647, 0, 0, 1, 1, 2, 2, 3, 3, 4, 4, 5, 5, 6, 6], "right_children": [2, 4, 6, 8, 10, 12, 14, -1, -1, -1, -1, -1, -1, -1, -1], "split_conditions": [73.65398, 284.0, 37639.0, 37639.0, 40.0, 28960.0, 8662.0, -0.14532529, 0.18763575, -0.14540315, -0.0038843907, -0.1449994, 0.075954385, 0.013396411, 0.29531208], "split_indices": [15, 11, 0, 0, 14, 19, 1, 0, 0, 0, 0, 0, 0, 0, 0], "split_type": [0, 0, 0, 0, 0, 0, 0, 0, 0, 0, 0, 0, 0, 0, 0], "sum_hessian": [3007.9524, 2150.675, 857.2773, 509.8555, 1640.8196, 154.1928, 703.0845, 189.10846, 320.74704, 1349.3496, 291.46994, 150.93979, 3.2530127, 119.27713, 583.8073], "tree_param": {"num_deleted": "0", "num_feature": "20", "num_nodes": "15", "size_leaf_vector": "1"}}, {"base_weights": [-9.657781e-05, 1.4303961, -1.8113369, -1.804609, 1.9793545, -1.8342029, 0.27101663, -0.18146013, -0.03896722, -0.18637033, 0.21025002, -0.1888393, -0.14264221, 0.15713891, -0.11317634], "categories": [], "categories_nodes": [], "categories_segments": [], "categories_sizes": [], "default_left": [0, 0, 0, 0, 0, 0, 0, 0, 0, 0, 0, 0, 0, 0, 0], "id": 3, "left_children": [1, 3, 5, 7, 9, 11, 13, -1, -1, -1, -1, -1, -1, -1, -1], "loss_changes": [8964.651, 3436.6594, 73.19531, 3.265442, 786.30273, 30.682129, 33.61806, 0.0, 0.0, 0.0, 0.0, 0.0, 0.0, 0.0, 0.0], "parents": [2147483647, 0, 0, 1, 1, 2, 2, 3, 3, 4, 4, 5, 5, 6, 6], "right_children": [2, 4, 6, 8, 10, 12, 14, -1, -1, -1, -1, -1, -1, -1, -1], "split_conditions": [3091.0, 47225.0, 60992.0, 1201.0, 3306.0, 9000.0, 443.0, -0.18146013, -0.03896722, -0.18637033, 0.21025002, -0.1888393, -0.14264221, 0.15713891, -0.11317634], "split_indices": [7, 0, 0, 10, 1, 1, 1, 0, 0, 0, 0, 0, 0, 0, 0], "split_type": [0, 0, 0, 0, 0, 0, 0, 0, 0, 0, 0, 0, 0, 0, 0], "sum_hessian": [3457.9648, 1932.1721, 1525.7927, 279.97797, 1652.1942, 1509.3381, 16.454628, 277.73416, 2.2438128, 50.859756, 1601.3345, 1329.0851, 180.25296, 8.476626, 7.978001], "tree_param": {"num_deleted": "0", "num_feature": "20", "num_nodes": "15", "size_leaf_vector": "1"}}, {"base_weights": [-0.0042867926, -0.16884689, 0.72362906, -1.3935788, 1.2826644, 0.03422859, -0.15391356, -0.101903796, 0.1682357], "categories": [], "categories_nodes": [], "categories_segments": [], "categories_sizes": [], "default_left": [0, 0, 0, 0, 0, 0, 0, 0, 0], "id": 4, "left_children": [1, -1, 3, 5, 7, -1, -1, -1, -1], "loss_changes": [4111.5996, 0.0, 2773.437, 124.242004, 1706.5032, 0.0, 0.0, 0.0, 0.0], "parents": [2147483647, 0, 0, 2, 2, 3, 3, 4, 4], "right_children": [2, -1, 4, 6, 8, -1, -1, -1, -1], "split_conditions": [57.0, -0.16884689, 6.2823825, 64.0, 40802.0, 0.03422859, -0.15391356, -0.101903796, 0.1682357], "split_indices": [19, 0, 15, 19, 0, 0, 0, 0, 0], "split_type": [0, 0, 0, 0, 0, 0, 0, 0, 0], "sum_hessian": [3351.83, 1011.1072, 2340.723, 488.63736, 1852.0854, 37.699024, 450.93832, 273.80124, 1578.2842], "tree_param": {"num_deleted": "0", "num_feature": "20", "num_nodes": "9", "size_leaf_vector": "1"}}]}, "name": "gbtree"}, "learner_model_param": {"base_score": "1.2223308E-1", "boost_from_average": "1", "num_class": "0", "num_feature": "20", "num_target": "1"}, "objective": {"name": "binary:logistic", "reg_loss_param": {"scale_pos_weight": "1"}}}, "version": [2, 1, 4]}