{"learner": {"attributes": {}, "feature_names": [], "feature_types": [], "gradient_booster": {"model": {"gbtree_model_param": {"num_parallel_tree": "1", "num_trees": "15"}, "iteration_indptr": [0, 1, 2, 3, 4, 5, 6, 7, 8, 9, 10, 11, 12, 13, 14, 15], "tree_info": [0, 0, 0, 0, 0, 0, 0, 0, 0, 0, 0, 0, 0, 0, 0], "trees": [{"base_weights": [-0.0042059165, -0.16900943, 0.7362155, -1.4147176, 1.2945045, 0.05460096, -0.15284877, -0.09841297, 0.16809794], "categories": [], "categories_nodes": [], "categories_segments": [], "categories_sizes": [], "default_left": [0, 0, 0, 0, 0, 0, 0, 0, 0], "id": 0, "left_children": [1, -1, 3, 5, 7, -1, -1, -1, -1], "loss_changes": [4188.232, 0.0, 2801.4072, 108.109375, 1632.1018, 0.0, 0.0, 0.0, 0.0], "parents": [2147483647, 0, 0, 2, 2, 3, 3, 4, 4], "right_children": [2, -1, 4, 6, 8, -1, -1, -1, -1], "split_conditions": [57.0, -0.16900943, 5.78955, 61.0, 40756.0, 0.05460096, -0.15284877, -0.09841297, 0.16809794], "split_indices": [19, 0, 15, 19, 0, 0, 0, 0, 0], "split_type": [0, 0, 0, 0, 0, 0, 0, 0, 0], "sum_hessian": [3353.2383, 1022.89484, 2330.3435, 479.89746, 1850.446, 26.11029, 453.78717, 268.114, 1582.332], "tree_param": {"num_deleted": "0", "num_feature": "20", "num_nodes": "9", "size_leaf_vector": "1"}}, {"base_weights": [-0.038333848, -0.146981, 0.87653553, -1.4403136, 1.7881883, -0.14613055, 0.053075798, -0.012869268, 0.258714], "categories": [], "categories_nodes": [], "categories_segments": [], "categories_sizes": [], "default_left": [0, 0, 0, 0, 0, 0, 0, 0, 0], "id": 1, "left_children": [1, -1, 3, 5, 7, -1, -1, -1, -1], "loss_changes": [3959.1362, 0.0, 3898.2515, 22.348145, 2028.0815, 0.0, 0.0, 0.0, 0.0], "parents": [2147483647, 0, 0, 2, 2, 3, 3, 4, 4], "right_children": [2, -1, 4, 6, 8, -1, -1, -1, -1], "split_conditions": [57.0, -0.146981, 37518.0, 28960.0, 8662.0, -0.14613055, 0.053075798, -0.012869268, 0.258714], "split_indices": [19, 0, 0, 19, 1, 0, 0, 0, 0], "split_type": [0, 0, 0, 0, 0, 0, 0, 0, 0], "sum_hessian": [3021.149, 1177.7471, 1843.4019, 520.3695, 1323.0323, 515.14185, 5.227655, 389.4603, 933.5721], "tree_param": {"num_deleted": "0", "num_feature": "20", "num_nodes": "9", "size_leaf_vector": "1"}}, {"base_weights": [-1.0695487, -1.0943083, 0.4094847, -0.11374694, -0.962324, -1.007749, 2.666762, 0.025147555, -0.10221273, -0.010780353, -0.10643299, 0.47493225, -0.08886487], "categories": [], "categories_nodes": [], "categories_segments": [], "categories_sizes": [], "default_left": [0, 0, 0, 0, 0, 0, 0, 0, 0, 0, 0, 0, 0], "id": 2, "left_children": [1, 3, 5, -1, 7, 9, 11, -1, -1, -1, -1, -1, -1], "loss_changes": [55.032227, 7.258301, 83.52576, 0.0, 26.957428, 0.7126446, 78.41509, 0.0, 0.0, 0.0, 0.0, 0.0, 0.0], "parents": [2147483647, 0, 0, 1, 1, 2, 2, 4, 4, 5, 5, 6, 6], "right_children": [2, 4, 6, -1, 8, 10, 12, -1, -1, -1, -1, -1, -1], "split_conditions": [28960.0, 235.0, 0.664498, -0.11374694, 239.0, 0.19993727, 2.0, 0.025147555, -0.10221273, -0.010780353, -0.10643299, 0.47493225, -0.08886487], "split_indices": [19, 19, 6, 0, 19, 6, 18, 0, 0, 0, 0, 0, 0], "split_type": [0, 0, 0, 0, 0, 0, 0, 0, 0, 0, 0, 0, 0], "sum_hessian": [1489.5471, 1465.278, 24.269169, 1098.4484, 366.82956, 15.24877, 9.020399, 17.074327, 349.75522, 1.0738571, 14.174912, 5.4766707, 3.543728], "tree_param": {"num_deleted": "0", "num_feature": "20", "num_nodes": "13", "size_leaf_vector": "1"}}, {"base_weights": [-0.38424492, -1.043972, 4.3781867, -1.1889386, 1.5824718, -1.0416974, 5.2069955, -0.0341484, -0.11939766, -0.09384688, 0.42468554, 0.015250484, -0.10950269, 0.54105276, -0.10647037], "categories": [], "categories_nodes": [], "categories_segments": [], "categories_sizes": [], "default_left": [0, 0, 0, 0, 0, 0, 0, 0, 0, 0, 0, 0, 0, 0, 0], "id": 3, "left_children": [1, 3, 5, 7, 9, 11, 13, -1, -1, -1, -1, -1, -1, -1, -1], "loss_changes": [6509.9287, 694.6111, 1137.9453, 6.956299, 646.09247, 2.3497314, 285.11328, 0.0, 0.0, 0.0, 0.0, 0.0, 0.0, 0.0, 0.0], "parents": [2147483647, 0, 0, 1, 1, 2, 2, 3, 3, 4, 4, 5, 5, 6, 6], "right_children": [2, 4, 6, 8, 10, 12, 14, -1, -1, -1, -1, -1, -1, -1, -1], "split_conditions": [24096.385, 92.16226, 37062.0, 131.0, 2.0, 68.0, 235.0, -0.0341484, -0.11939766, -0.09384688, 0.42468554, 0.015250484, -0.10950269, 0.54105276, -0.10647037], "split_indices": [16, 15, 0, 7, 18, 0, 19, 0, 0, 0, 0, 0, 0, 0, 0], "split_type": [0, 0, 0, 0, 0, 0, 0, 0, 0, 0, 0, 0, 0, 0, 0], "sum_hessian": [2069.514, 1818.397, 251.11693, 1723.7991, 94.597824, 33.273365, 217.84357, 10.593762, 1713.2053, 48.940197, 45.657623, 1.3428713, 31.930494, 211.12921, 6.7143564], "tree_param": {"num_deleted": "0", "num_feature": "20", "num_nodes": "15", "size_leaf_vector": "1"}}, {"base_weights": [-9.0215624e-05, 1.4310226, -1.8121159, -1.8237171, 1.9770298, -1.8356489, 0.3916309, -0.18338218, -0.05925862, -0.18660963, 0.21012011, -0.1888193, -0.14464782, 0.18733382, -0.1133693], "categories": [], "categories_nodes": [], "categories_segments": [], "categories_sizes": [], "default_left": [0, 0, 0, 0, 0, 0, 0, 0, 0, 0, 0, 0, 0, 0, 0], "id": 4, "left_children": [1, 3, 5, 7, 9, 11, 13, -1, -1, -1, -1, -1, -1, -1, -1], "loss_changes": [8973.5, 3439.4783, 79.90918, 2.375061, 794.2388, 28.16748, 40.45009, 0.0, 0.0, 0.0, 0.0, 0.0, 0.0, 0.0, 0.0], "parents": [2147483647, 0, 0, 1, 1, 2, 2, 3, 3, 4, 4, 5, 5, 6, 6], "right_children": [2, 4, 6, 8, 10, 12, 14, -1, -1, -1, -1, -1, -1, -1, -1], "split_conditions": [3520.0, 47288.0, 63863.0, 984.0, 3306.0, 9000.0, 443.0, -0.18338218, -0.05925862, -0.18660963, 0.21012011, -0.1888193, -0.14464782, 0.18733382, -0.1133693], "split_indices": [7, 0, 0, 10, 1, 1, 1, 0, 0, 0, 0, 0, 0, 0, 0], "split_type": [0, 0, 0, 0, 0, 0, 0, 0, 0, 0, 0, 0, 0, 0, 0], "sum_hessian": [3458.379, 1932.4034, 1525.9753, 277.26874, 1655.1348, 1510.0175, 15.957912, 274.52597, 2.7427661, 51.364532, 1603.7701, 1327.0001, 183.0173, 7.978956, 7.978956], "tree_param": {"num_deleted": "0", "num_feature": "20", "num_nodes": "15", "size_leaf_vector": "1"}}, {"base_weights": [0.3211832, 1.3265306, -1.2274275, -1.302921, 1.682285, -1.2556846, 0.97274536, -0.115623236, -0.14059632, -0.15084367, 0.17728256, -0.13238107, -0.080788665, 0.27001283, -0.086332165], "categories": [], "categories_nodes": [], "categories_segments": [], "categories_sizes": [], "default_left": [0, 0, 0, 0, 0, 0, 0, 0, 0, 0, 0, 0, 0, 0, 0], "id": 5, "left_children": [1, 3, 5, 7, 9, 11, 13, -1, -1, -1, -1, -1, -1, -1, -1], "loss_changes": [4667.89, 1702.6636, 74.60339, 1.6573486, 465.36963, 34.49524, 51.58737, 0.0, 0.0, 0.0, 0.0, 0.0, 0.0, 0.0, 0.0], "parents": [2147483647, 0, 0, 1, 1, 2, 2, 3, 3, 4, 4, 5, 5, 6, 6], "right_children": [2, 4, 6, 8, 10, 12, 14, -1, -1, -1, -1, -1, -1, -1, -1], "split_conditions": [2261.5408, 47118.0, 63865.0, 28.0, 3306.0, 9000.0, 443.0, -0.115623236, -0.14059632, -0.15084367, 0.17728256, -0.13238107, -0.080788665, 0.27001283, -0.086332165], "split_indices": [7, 0, 0, 14, 1, 1, 1, 0, 0, 0, 0, 0, 0, 0, 0], "split_type": [0, 0, 0, 0, 0, 0, 0, 0, 0, 0, 0, 0, 0, 0, 0], "sum_hessian": [2996.1653, 1816.8331, 1179.3322, 216.19919, 1600.6339, 1164.8018, 14.530471, 94.24905, 121.95015, 43.73449, 1556.8994, 1009.2959, 155.50584, 7.2443447, 7.286126], "tree_param": {"num_deleted": "0", "num_feature": "20", "num_nodes": "15", "size_leaf_vector": "1"}}, {"base_weights": [-0.84112644, 1.7493544, -1.2681278, -1.2331074, 2.116111, -1.3552572, 0.19031614, -0.12735063, -0.009533637, 0.22118731, -0.14018986, -0.13596061, 0.010124806, -0.13439792, 0.1652269], "categories": [], "categories_nodes": [], "categories_segments": [], "categories_sizes": [], "default_left": [0, 0, 0, 0, 0, 0, 0, 0, 0, 0, 0, 0, 0, 0, 0], "id": 6, "left_children": [1, 3, 5, 7, 9, 11, 13, -1, -1, -1, -1, -1, -1, -1, -1], "loss_changes": [3119.3123, 439.2611, 307.75024, 1.9169083, 122.982666, 14.6015625, 310.17047, 0.0, 0.0, 0.0, 0.0, 0.0, 0.0, 0.0, 0.0], "parents": [2147483647, 0, 0, 1, 1, 2, 2, 3, 3, 4, 4, 5, 5, 6, 6], "right_children": [2, 4, 6, 8, 10, 12, 14, -1, -1, -1, -1, -1, -1, -1, -1], "split_conditions": [71.0, 38471.0, 104.59704, 69.0, 235.0, 24096.385, 2.0, -0.12735063, -0.009533637, 0.22118731, -0.14018986, -0.13596061, 0.010124806, -0.13439792, 0.1652269], "split_indices": [9, 0, 15, 2, 19, 6, 18, 0, 0, 0, 0, 0, 0, 0, 0], "split_type": [0, 0, 0, 0, 0, 0, 0, 0, 0, 0, 0, 0, 0, 0, 0], "sum_hessian": [2816.9954, 398.19244, 2418.803, 43.345448, 354.847, 2282.5134, 136.2896, 41.743946, 1.6015011, 345.80527, 9.041721, 2275.785, 6.728576, 66.538864, 69.75074], "tree_param": {"num_deleted": "0", "num_feature": "20", "num_nodes": "15", "size_leaf_vector": "1"}}, {"base_weights": [-0.19408938, -0.13306116, 0.41466907, -1.3397934, 0.9938634, -0.13523833, -0.027111733, -0.032147292, 0.1518416], "categories": [], "categories_nodes": [], "categories_segments": [], "categories_sizes": [], "default_left": [0, 0, 0, 0, 0, 0, 0, 0, 0], "id": 7, "left_children": [1, -1, 3, 5, 7, -1, -1, -1, -1], "loss_changes": [2010.8025, 0.0, 1924.7924, 5.9599, 982.74, 0.0, 0.0, 0.0, 0.0], "parents": [2147483647, 0, 0, 2, 2, 3, 3, 4, 4], "right_children": [2, -1, 4, 6, 8, -1, -1, -1, -1], "split_conditions": [57.0, -0.13306116, 37489.0, 29200.0, 8662.0, -0.13523833, -0.027111733, -0.032147292, 0.1518416], "split_indices": [19, 0, 0, 19, 1, 0, 0, 0, 0], "split_type": [0, 0, 0, 0, 0, 0, 0, 0, 0], "sum_hessian": [2904.5432, 1012.6987, 1891.8445, 469.21423, 1422.6302, 463.48846, 5.725754, 405.70242, 1016.92786], "tree_param": {"num_deleted": "0", "num_feature": "20", "num_nodes": "9", "size_leaf_vector": "1"}}, {"base_weights": [0.2564434, -1.3594306, 0.8209697, -1.3287013, -0.1449477, -1.0775039, 1.2538238, -0.1331675, -0.062404748, 0.02369339, -0.12768735, -0.07850161, 0.15775709], "categories": [], "categories_nodes": [], "categories_segments": [], "categories_sizes": [], "default_left": [0, 0, 0, 0, 0, 0, 0, 0, 0, 0, 0, 0, 0], "id": 8, "left_children": [1, 3, 5, 7, -1, 9, 11, -1, -1, -1, -1, -1, -1], "loss_changes": [2768.8516, 0.24890137, 1849.6439, 0.42199707, 0.0, 109.87976, 1210.5112, 0.0, 0.0, 0.0, 0.0, 0.0, 0.0], "parents": [2147483647, 0, 0, 1, 1, 2, 2, 3, 3, 5, 5, 6, 6], "right_children": [2, 4, 6, 8, -1, 10, 12, -1, -1, -1, -1, -1, -1], "split_conditions": [57.0, 5285.412, 5.495985, 3921.5686, -0.1449477, 80.0, 40904.0, -0.1331675, -0.062404748, 0.02369339, -0.12768735, -0.07850161, 0.15775709], "split_indices": [19, 16, 15, 16, 0, 19, 0, 0, 0, 0, 0, 0, 0], "split_type": [0, 0, 0, 0, 0, 0, 0, 0, 0, 0, 0, 0, 0], "sum_hessian": [3033.1216, 784.9394, 2248.1824, 596.972, 187.96739, 417.14008, 1831.0421, 593.5771, 3.394915, 54.91283, 362.22726, 250.71378, 1580.3284], "tree_param": {"num_deleted": "0", "num_feature": "20", "num_nodes": "13", "size_leaf_vector": "1"}}, {"base_weights": [-1.3959785, -1.5321157, -1.3272556, -0.13579534, -1.6376525, -1.3377168, -0.90252316, -0.16497329, 0.10388088, -0.13397263, -0.078468114, 0.01956226, -0.14110968], "categories": [], "categories_nodes": [], "categories_segments": [], "categories_sizes": [], "default_left": [0, 0, 0, 0, 0, 0, 0, 0, 0, 0, 0, 0, 0], "id": 9, "left_children": [1, 3, 5, -1, 7, 9, 11, -1, -1, -1, -1, -1, -1], "loss_changes": [23.972168, 14.796387, 7.0336914, 0.0, 20.199219, 0.9580078, 26.891273, 0.0, 0.0, 0.0, 0.0, 0.0, 0.0], "parents": [2147483647, 0, 0, 1, 1, 2, 2, 4, 4, 5, 5, 6, 6], "right_children": [2, 4, 6, -1, 8, 10, 12, -1, -1, -1, -1, -1, -1], "split_conditions": [4119.0, 39526.0, 28960.0, -0.13579534, 50000.0, 15080562.0, 5964074.0, -0.16497329, 0.10388088, -0.13397263, -0.078468114, 0.01956226, -0.14110968], "split_indices": [7, 0, 19, 0, 15, 11, 9, 0, 0, 0, 0, 0, 0], "split_type": [0, 0, 0, 0, 0, 0, 0, 0, 0, 0, 0, 0, 0], "sum_hessian": [2778.6277, 924.98193, 1853.6459, 354.24896, 570.7329, 1806.9899, 46.655895, 568.55035, 2.182553, 1799.0304, 7.9594994, 14.962729, 31.693165], "tree_param": {"num_deleted": "0", "num_feature": "20", "num_nodes": "13", "size_leaf_vector": "1"}}, {"base_weights": [0.097762905, -0.116828635, 0.6170046, -1.1753458, 1.0812465, -0.11919371, -0.0005781607, 0.14416349, -0.015160901], "categories": [], "categories_nodes": [], "categories_segments": [], "categories_sizes": [], "default_left": [0, 0, 0, 0, 0, 0, 0, 0, 0], "id": 10, "left_children": [1, -1, 3, 5, 7, -1, -1, -1, -1], "loss_changes": [1521.0911, 0.0, 1366.5183, 6.5523987, 579.47437, 0.0, 0.0, 0.0, 0.0], "parents": [2147483647, 0, 0, 2, 2, 3, 3, 4, 4], "right_children": [2, -1, 4, 6, 8, -1, -1, -1, -1], "split_conditions": [57.0, -0.116828635, 37574.0, 29200.0, 6978.0, -0.11919371, -0.0005781607, 0.14416349, -0.015160901], "split_indices": [19, 0, 0, 19, 11, 0, 0, 0, 0], "split_type": [0, 0, 0, 0, 0, 0, 0, 0, 0], "sum_hessian": [2311.753, 671.9965, 1639.7562, 337.02704, 1302.7292, 332.294, 4.7330127, 1007.92365, 294.8056], "tree_param": {"num_deleted": "0", "num_feature": "20", "num_nodes": "9", "size_leaf_vector": "1"}}, {"base_weights": [0.51289797, -1.0371329, 1.3110049, -1.0734947, 1.7648702, 1.6049672, -1.1881647, -0.11922641, -0.008586876, 0.3285998, -0.10045892, -0.11544185, 0.16343337, -0.060233902, -0.12064432], "categories": [], "categories_nodes": [], "categories_segments": [], "categories_sizes": [], "default_left": [0, 0, 0, 0, 0, 0, 0, 0, 0, 0, 0, 0, 0, 0, 0], "id": 11, "left_children": [1, 3, 5, 7, 9, 11, 13, -1, -1, -1, -1, -1, -1, -1, -1], "loss_changes": [3042.369, 87.078735, 1194.354, 96.78528, 50.015797, 119.60571, 1.1086273, 0.0, 0.0, 0.0, 0.0, 0.0, 0.0, 0.0, 0.0], "parents": [2147483647, 0, 0, 1, 1, 2, 2, 3, 3, 4, 4, 5, 5, 6, 6], "right_children": [2, 4, 6, 8, 10, 12, 14, -1, -1, -1, -1, -1, -1, -1, -1], "split_conditions": [9002.0, 63860.0, 9200.0, 3306.0, 443.0, 27218.0, 16.0, -0.11922641, -0.008586876, 0.3285998, -0.10045892, -0.11544185, 0.16343337, -0.060233902, -0.12064432], "split_indices": [1, 0, 1, 1, 1, 0, 2, 0, 0, 0, 0, 0, 0, 0, 0], "split_type": [0, 0, 0, 0, 0, 0, 0, 0, 0, 0, 0, 0, 0, 0, 0], "sum_hessian": [2457.1953, 835.07263, 1622.1228, 824.98364, 10.089016, 1451.723, 170.39975, 736.2383, 88.745316, 6.391801, 3.6972148, 14.883645, 1436.8394, 6.183136, 164.21661], "tree_param": {"num_deleted": "0", "num_feature": "20", "num_nodes": "15", "size_leaf_vector": "1"}}, {"base_weights": [-0.5287358, -1.0794667, 2.106822, -1.2071941, 0.5137259, 2.4090898, -1.0980288, -0.11430967, -0.12906918, -0.11017268, 0.19321644, -0.09521582, 0.25003752, 0.023159228, -0.11849213], "categories": [], "categories_nodes": [], "categories_segments": [], "categories_sizes": [], "default_left": [0, 0, 0, 0, 0, 0, 0, 0, 0, 0, 0, 0, 0, 0, 0], "id": 12, "left_children": [1, 3, 5, 7, 9, 11, 13, -1, -1, -1, -1, -1, -1, -1, -1], "loss_changes": [3107.6787, 360.8733, 361.20203, 7.2978516, 304.81738, 106.25757, 4.039383, 0.0, 0.0, 0.0, 0.0, 0.0, 0.0, 0.0, 0.0], "parents": [2147483647, 0, 0, 1, 1, 2, 2, 3, 3, 4, 4, 5, 5, 6, 6], "right_children": [2, 4, 6, 8, 10, 12, 14, -1, -1, -1, -1, -1, -1, -1, -1], "split_conditions": [22988.506, 75.112854, 229.0, 5555.0, 2.0, 35578.0, 235.0, -0.11430967, -0.12906918, -0.11017268, 0.19321644, -0.09521582, 0.25003752, 0.023159228, -0.11849213], "split_indices": [16, 15, 19, 1, 18, 0, 19, 0, 0, 0, 0, 0, 0, 0, 0], "split_type": [0, 0, 0, 0, 0, 0, 0, 0, 0, 0, 0, 0, 0, 0, 0], "sum_hessian": [2138.4697, 1769.3364, 369.1333, 1638.2399, 131.09653, 337.54572, 31.587559, 935.098, 703.1418, 61.396095, 69.70043, 8.675412, 328.87033, 1.8355058, 29.752054], "tree_param": {"num_deleted": "0", "num_feature": "20", "num_nodes": "15", "size_leaf_vector": "1"}}, {"base_weights": [-1.2626494, -1.4386169, -1.1604272, -1.2510983, -1.5973263, -1.1734934, -0.7310482, -0.1192091, -0.14578368, -0.15265344, -0.26022732, -0.11837306, -0.09849367, -0.12400713, 0.02061728], "categories": [], "categories_nodes": [], "categories_segments": [], "categories_sizes": [], "default_left": [0, 0, 0, 0, 0, 0, 0, 0, 0, 0, 0, 0, 0, 0, 0], "id": 13, "left_children": [1, 3, 5, 7, 9, 11, 13, -1, -1, -1, -1, -1, -1, -1, -1], "loss_changes": [35.43701, 20.436646, 6.491699, 2.5338745, 24.816406, 1.2851562, 19.977392, 0.0, 0.0, 0.0, 0.0, 0.0, 0.0, 0.0, 0.0], "parents": [2147483647, 0, 0, 1, 1, 2, 2, 3, 3, 4, 4, 5, 5, 6, 6], "right_children": [2, 4, 6, 8, 10, 12, 14, -1, -1, -1, -1, -1, -1, -1, -1], "split_conditions": [3759.2856, 47304.0, 28960.0, 2.0, 2.0, 814.4, 0.6083774, -0.1192091, -0.14578368, -0.15265344, -0.26022732, -0.11837306, -0.09849367, -0.12400713, 0.02061728], "split_indices": [7, 0, 19, 18, 18, 5, 6, 0, 0, 0, 0, 0, 0, 0, 0], "split_type": [0, 0, 0, 0, 0, 0, 0, 0, 0, 0, 0, 0, 0, 0, 0], "sum_hessian": [2061.8635, 752.838, 1309.0255, 349.16953, 403.66846, 1268.686, 40.339508, 276.90225, 72.267265, 379.4572, 24.211256, 1198.3463, 70.33968, 25.932125, 14.407382], "tree_param": {"num_deleted": "0", "num_feature": "20", "num_nodes": "15", "size_leaf_vector": "1"}}, {"base_weights": [0.6095407, -1.2050834, 1.1161706, -1.1657774, -0.1301096, -0.9392897, 1.4652785, -0.11704147, 0.006452016, -0.10602237, 0.0785179, 0.07480731, 0.22559856], "categories": [], "categories_nodes": [], "categories_segments": [], "categories_sizes": [], "default_left": [0, 0, 0, 0, 0, 0, 0, 0, 0, 0, 0, 0, 0], "id": 14, "left_children": [1, 3, 5, 7, -1, 9, 11, -1, -1, -1, -1, -1, -1], "loss_changes": [2355.2446, 0.5939331, 1438.0425, 2.3945312, 0.0, 61.579193, 969.0845, 0.0, 0.0, 0.0, 0.0, 0.0, 0.0], "parents": [2147483647, 0, 0, 1, 1, 2, 2, 3, 3, 5, 5, 6, 6], "right_children": [2, 4, 6, 8, -1, 10, 12, -1, -1, -1, -1, -1, -1], "split_conditions": [57.0, 4492.363, 1.9612546, 3745.3184, -0.1301096, 28960.0, 28121.0, -0.11704147, 0.006452016, -0.10602237, 0.0785179, 0.07480731, 0.22559856], "split_indices": [19, 16, 15, 16, 0, 19, 2, 0, 0, 0, 0, 0, 0], "split_type": [0, 0, 0, 0, 0, 0, 0, 0, 0, 0, 0, 0, 0], "sum_hessian": [2559.4153, 558.3094, 2001.1058, 405.4619, 152.84752, 290.28568, 1710.8202, 403.98785, 1.4740436, 271.62244, 18.663223, 898.1265, 812.69366], "tree_param": {"num_deleted": "0", "num_feature": "20", "num_nodes": "13", "size_leaf_vector": "1"}}]}, "name": "gbtree"}, "learner_model_param": {"base_score": "4.092363E-1", "boost_from_average": "1", "num_class": "0", "num_feature": "20", "num_target": "1"}, "objective": {"name": "binary:logistic", "reg_loss_param": {"scale_pos_weight": "1"}}}, "version": [2, 1, 4]}